{"w1": [[-0.07914929681549211, 0.3628059185555069, 0.5173805286910078, 5.526790927321525e-07, -0.2244670379015415, -0.49880775592581356, -0.3178479943965253, 0.4572921183107728, -0.0966270513741296, 0.13379425889566882, -0.7688729555725747, 0.545420782195788, 0.3965042102755273, -0.18250245729419176, -0.5380806189811944, -0.6034802696354308], [-0.007766101366003849, -6.036493521270705e-13, 1.1848729615725268e-09, -0.011254632434318044, 1.9834764500553846e-05, -0.09610066011140915, -0.010985281336428804, -0.0003002801420548893, 1.0439937490801178e-10, 0.045389980797305905, -0.05449346107375973, 1.1970279436235155e-11, -1.157108288031585e-07, -0.17210868825452666, 8.553503362972581e-06, -0.07367210982757628], [-0.15609586925284544, 0.16806243106182575, 0.18268164899928485, 0.059596582946688695, -0.0076772539066683925, -0.12890528492863856, 0.0052856721490019635, -1.6151576058965972e-10, -0.10947343914091642, -7.226595038081483e-14, -0.1826635551701847, 0.13462854347066933, -0.023070627241595924, 0.0020941375551031555, -0.006093987064515683, 9.710468644481127e-13], [-7.370542207908047e-11, -0.06398918289309195, 0.18616769615681392, 0.03972457254148825, 0.15998186278643825, 0.12283613385694124, 3.6619626894149787e-07, 0.1450520364133184, -0.13643107182093875, -0.05680621461600578, -0.17317311045524864, -0.0036507213839755974, -1.8041283353145525e-05, -0.017981169246220004, 0.07316197234953319, -0.0006529706252130749], [-0.014530301875721609, -1.3156314714782816e-11, -0.09502728496292864, 0.05566122649797426, -0.1480535628952224, 0.2015752312402342, 0.03815343645311347, -0.055090371159661526, -0.20840631846922625, 0.06419751112416582, 0.010695771902334358, 0.018116699046102434, 0.03762936760788046, -0.1484795144643469, -0.0005753329685405334, -0.11431369799307182]], "b1": [0.291768563031202, 0.02849745741938115, 0.09976088690601276, -0.4665757492994585, -0.3452635400286218, 0.03858792947716628, 0.1114732925335142, 0.38558625172409, 0.6491020525394628, -0.1179331748309173, -0.08006169876128033, 0.5161147507893425, 0.5221172299704676, -0.05315790184761037, 0.3444974439166852, 0.26045739734243945], "w2": [[3.0642568921253834e-11, 9.877334351652376e-10, -0.3156545150217062, -0.4436698005310965, -0.2658474544291052, 0.32010967837151927, -0.2650038270244395, 0.28531942458161824], [0.11204121270281044, -0.020277859429730996, 0.025297096205884953, 0.02214586345360799, -0.14906552339008197, -0.31027202430303374, -0.2446167525620276, -0.22043535058422017], [0.1285939692973371, 0.04716702309993286, 0.40147877384838254, 0.08645282519811988, 0.5898672343722864, -0.049503138996015744, 0.10117423662722723, 0.3154553262330486], [0.046793363592879195, 0.1037040108493183, -0.0030184382674769547, -0.09931584899176792, -0.02910469655188815, 1.2770310142677185e-09, 0.05273196362690333, 0.07924271695193148], [-0.17879202751850753, -1.1407675083209857e-11, -0.0009567445319917836, -0.314890065628831, -0.26172346945959274, -0.019958307668271162, 0.3743577786512881, -0.032942011452390035], [1.6834116773642384e-11, 0.006435915805919222, 0.08704976645761307, 0.4080393213508315, 0.6813657149071498, 0.0414617567460304, -0.08611750820789815, 0.14831535035639273], [-0.009152638766466017, -0.1546106370026778, 0.26407898045129263, -0.04883357231972502, -0.24009710374337098, -0.019601210764937767, 0.32897079414658353, 0.04605010683148914], [-0.07554370613010589, 1.2549884439122837e-11, 0.664141622903672, -0.023098638063939886, 0.3644778164743968, 0.4365730735975257, -0.3445159448938747, 0.41843932928889477], [-0.00010791508563166845, 0.00010897315461120204, 0.3330236940670113, -0.03775673154596861, -0.17838716830707407, 0.5463515543498754, -0.267082206083055, -0.037642778578813395], [-0.15152668503840017, -1.4156654224828542e-08, 0.2534676851184533, -0.17092770293639645, 0.09098431807558045, -0.19832001983488834, 0.00036298457102696937, -0.24881686017156873], [0.004278295388230168, -5.958977268379849e-06, 0.6700021141220673, -0.4347001672182366, 0.12115703083900536, -0.059135942684682495, 0.3308694222580886, 0.5261379228366732], [-0.017145903025194878, 0.0010094523421560922, 0.4971410294589092, 1.733424605562704e-10, 0.22349220430840247, -0.08180202921970846, -0.4893069927028559, 0.5905956473353766], [0.1068266040484072, 0.00011878556179868903, 0.02359002881333948, -0.000554693647605395, 0.42700739645893265, 0.5780169601604297, 0.3021258763102983, 0.49140053167592074], [0.0002797108872491819, -0.11817435502770769, -0.20992142614213186, 0.34952616425250177, 0.28770232383046357, -0.3206590188484574, -0.4744053617493985, 0.34503298914845576], [-0.1803434440521302, -0.06540482073652662, 0.24145703961197407, 0.132133397809409, 0.40095833419323307, -0.032102711755107996, 0.12982163422786527, 0.07557176367014339], [-0.0021799486616942685, 0.01871804702547859, 0.38365041490817514, 0.2792738950911666, 0.44051013853316345, 0.3760342332553371, -0.5003804903284084, 0.22668503414674915]], "b2": [-0.23479763231827455, -0.2560103566209164, 0.6482098993004498, -0.16449336683865498, 0.6028287894108226, 0.32182298104823837, 0.212100355279506, 0.2640886613015229], "w3": [[4.836331411218736e-05], [-9.358756825489663e-12], [-0.7151579310855344], [0.3385336894774621], [-0.6599852469467627], [-1.0558051481642519], [0.1790301075313819], [-0.8595022834750853]], "b3": [0.5599671234817833]}